digraph Tree {
node [shape=box, style="rounded", color="black", fontname="helvetica"] ;
edge [fontname="helvetica"] ;
0 [label="SPI12 <= 0.4\nsquared_error = 0.3\nsamples = 76\nvalue = 2.4"] ;
1 [label="SPI12 <= -0.4\nsquared_error = 0.2\nsamples = 44\nvalue = 2.7"] ;
0 -> 1 [labeldistance=2.5, labelangle=45, headlabel="True"] ;
2 [label="MUAC <= 22.2\nsquared_error = 0.1\nsamples = 20\nvalue = 2.9"] ;
1 -> 2 ;
3 [label="squared_error = 0.0\nsamples = 19\nvalue = 2.9"] ;
2 -> 3 ;
4 [label="squared_error = -0.0\nsamples = 1\nvalue = 2.0"] ;
2 -> 4 ;
5 [label="SPI1 <= 0.2\nsquared_error = 0.1\nsamples = 24\nvalue = 2.5"] ;
1 -> 5 ;
6 [label="squared_error = 0.1\nsamples = 16\nvalue = 2.3"] ;
5 -> 6 ;
7 [label="squared_error = 0.0\nsamples = 8\nvalue = 2.7"] ;
5 -> 7 ;
8 [label="GP <= 4450.0\nsquared_error = 0.1\nsamples = 32\nvalue = 2.0"] ;
0 -> 8 [labeldistance=2.5, labelangle=-45, headlabel="False"] ;
9 [label="MPR <= 106.2\nsquared_error = 0.1\nsamples = 27\nvalue = 2.1"] ;
8 -> 9 ;
10 [label="squared_error = 0.0\nsamples = 26\nvalue = 2.1"] ;
9 -> 10 ;
11 [label="squared_error = 0.0\nsamples = 1\nvalue = 3.0"] ;
9 -> 11 ;
12 [label="NDVI_crop <= 0.3\nsquared_error = 0.1\nsamples = 5\nvalue = 1.3"] ;
8 -> 12 ;
13 [label="squared_error = 0.0\nsamples = 4\nvalue = 1.2"] ;
12 -> 13 ;
14 [label="squared_error = 0.0\nsamples = 1\nvalue = 2.0"] ;
12 -> 14 ;
}