digraph Tree {
node [shape=box, style="rounded", color="black", fontname="helvetica"] ;
edge [fontname="helvetica"] ;
0 [label="FEWS_CS_lag1 <= 1.2\nsquared_error = 0.1\nsamples = 80\nvalue = 1.2"] ;
1 [label="ds_roll_mean_12 <= 13.2\nsquared_error = 0.0\nsamples = 46\nvalue = 1.0"] ;
0 -> 1 [labeldistance=2.5, labelangle=45, headlabel="True"] ;
2 [label="MPR <= 120.4\nsquared_error = 0.0\nsamples = 44\nvalue = 1.0"] ;
1 -> 2 ;
3 [label="squared_error = 0.0\nsamples = 1\nvalue = 1.5"] ;
2 -> 3 ;
4 [label="squared_error = 0.0\nsamples = 43\nvalue = 1.0"] ;
2 -> 4 ;
5 [label="HDW <= 0.7\nsquared_error = 0.0\nsamples = 2\nvalue = 1.3"] ;
1 -> 5 ;
6 [label="squared_error = 0.0\nsamples = 1\nvalue = 1.0"] ;
5 -> 6 ;
7 [label="squared_error = 0.0\nsamples = 1\nvalue = 1.4"] ;
5 -> 7 ;
8 [label="SPI24 <= -1.5\nsquared_error = 0.1\nsamples = 34\nvalue = 1.5"] ;
0 -> 8 [labeldistance=2.5, labelangle=-45, headlabel="False"] ;
9 [label="squared_error = 0.0\nsamples = 6\nvalue = 2.0"] ;
8 -> 9 ;
10 [label="SPI24 <= -0.0\nsquared_error = 0.0\nsamples = 28\nvalue = 1.4"] ;
8 -> 10 ;
11 [label="squared_error = 0.0\nsamples = 2\nvalue = 1.0"] ;
10 -> 11 ;
12 [label="SPI1 <= 2.1\nsquared_error = 0.0\nsamples = 26\nvalue = 1.4"] ;
10 -> 12 ;
13 [label="MUAC <= 0.8\nsquared_error = 0.0\nsamples = 25\nvalue = 1.4"] ;
12 -> 13 ;
14 [label="squared_error = 0.0\nsamples = 5\nvalue = 1.5"] ;
13 -> 14 ;
15 [label="squared_error = 0.0\nsamples = 20\nvalue = 1.4"] ;
13 -> 15 ;
16 [label="squared_error = -0.0\nsamples = 1\nvalue = 1.0"] ;
12 -> 16 ;
}