digraph Tree {
node [shape=box, style="rounded", color="black", fontname="helvetica"] ;
edge [fontname="helvetica"] ;
0 [label="FEWS_CS_lag1 <= 1.4\nsquared_error = 0.5\nsamples = 80\nvalue = 2.0"] ;
1 [label="MP <= 26.4\nsquared_error = 0.0\nsamples = 14\nvalue = 1.0"] ;
0 -> 1 [labeldistance=2.5, labelangle=45, headlabel="True"] ;
2 [label="squared_error = 0.0\nsamples = 1\nvalue = 1.9"] ;
1 -> 2 ;
3 [label="SPI24 <= 0.3\nsquared_error = 0.0\nsamples = 13\nvalue = 1.0"] ;
1 -> 3 ;
4 [label="maize_price_roll_mean <= 0.3\nsquared_error = 0.0\nsamples = 6\nvalue = 1.0"] ;
3 -> 4 ;
5 [label="squared_error = 0.0\nsamples = 5\nvalue = 1.0"] ;
4 -> 5 ;
6 [label="squared_error = 0.0\nsamples = 1\nvalue = 1.0"] ;
4 -> 6 ;
7 [label="squared_error = -0.0\nsamples = 7\nvalue = 1.0"] ;
3 -> 7 ;
8 [label="NDVI_crop_roll_mean_12 <= 0.2\nsquared_error = 0.3\nsamples = 66\nvalue = 2.2"] ;
0 -> 8 [labeldistance=2.5, labelangle=-45, headlabel="False"] ;
9 [label="wd_roll_mean_12 <= 3.2\nsquared_error = 0.2\nsamples = 13\nvalue = 3.1"] ;
8 -> 9 ;
10 [label="maize_price <= 0.4\nsquared_error = 0.0\nsamples = 3\nvalue = 4.0"] ;
9 -> 10 ;
11 [label="NDVI_crop_roll_mean_12 <= 0.2\nsquared_error = 0.0\nsamples = 2\nvalue = 4.0"] ;
10 -> 11 ;
12 [label="squared_error = 0.0\nsamples = 1\nvalue = 4.0"] ;
11 -> 12 ;
13 [label="squared_error = 0.0\nsamples = 1\nvalue = 4.0"] ;
11 -> 13 ;
14 [label="squared_error = 0.0\nsamples = 1\nvalue = 4.0"] ;
10 -> 14 ;
15 [label="maize_price_roll_mean_12 <= 0.4\nsquared_error = 0.1\nsamples = 10\nvalue = 2.9"] ;
9 -> 15 ;
16 [label="tp <= 10.8\nsquared_error = 0.0\nsamples = 9\nvalue = 2.9"] ;
15 -> 16 ;
17 [label="squared_error = 0.0\nsamples = 4\nvalue = 2.7"] ;
16 -> 17 ;
18 [label="squared_error = 0.0\nsamples = 5\nvalue = 3.0"] ;
16 -> 18 ;
19 [label="squared_error = 0.0\nsamples = 1\nvalue = 1.9"] ;
15 -> 19 ;
20 [label="ds_roll_mean <= 13.6\nsquared_error = 0.1\nsamples = 53\nvalue = 2.1"] ;
8 -> 20 ;
21 [label="wd <= 2.2\nsquared_error = 0.0\nsamples = 3\nvalue = 1.0"] ;
20 -> 21 ;
22 [label="squared_error = 0.0\nsamples = 1\nvalue = 1.0"] ;
21 -> 22 ;
23 [label="squared_error = -0.0\nsamples = 2\nvalue = 1.0"] ;
21 -> 23 ;
24 [label="FEWS_CS_lag1 <= 2.4\nsquared_error = 0.1\nsamples = 50\nvalue = 2.1"] ;
20 -> 24 ;
25 [label="SPI1 <= 2.0\nsquared_error = 0.0\nsamples = 40\nvalue = 2.0"] ;
24 -> 25 ;
26 [label="squared_error = 0.0\nsamples = 39\nvalue = 2.0"] ;
25 -> 26 ;
27 [label="squared_error = 0.0\nsamples = 1\nvalue = 2.9"] ;
25 -> 27 ;
28 [label="wd_roll_mean <= 5.1\nsquared_error = 0.1\nsamples = 10\nvalue = 2.5"] ;
24 -> 28 ;
29 [label="squared_error = 0.0\nsamples = 8\nvalue = 2.7"] ;
28 -> 29 ;
30 [label="squared_error = 0.0\nsamples = 2\nvalue = 2.0"] ;
28 -> 30 ;
}