digraph Tree {
node [shape=box, style="rounded", color="black", fontname="helvetica"] ;
edge [fontname="helvetica"] ;
0 [label="FEWS_CS_lag1 <= 1.5\nsquared_error = 0.2\nsamples = 80\nvalue = 1.6"] ;
1 [label="FEWS_CS_lag1 <= 1.1\nsquared_error = 0.0\nsamples = 27\nvalue = 1.1"] ;
0 -> 1 [labeldistance=2.5, labelangle=45, headlabel="True"] ;
2 [label="ds_roll_mean_12 <= 16.4\nsquared_error = 0.0\nsamples = 14\nvalue = 1.0"] ;
1 -> 2 ;
3 [label="squared_error = 0.0\nsamples = 1\nvalue = 1.6"] ;
2 -> 3 ;
4 [label="squared_error = 0.0\nsamples = 13\nvalue = 1.0"] ;
2 -> 4 ;
5 [label="FEWS_CS_lag2 <= 1.7\nsquared_error = 0.0\nsamples = 13\nvalue = 1.3"] ;
1 -> 5 ;
6 [label="squared_error = 0.0\nsamples = 11\nvalue = 1.2"] ;
5 -> 6 ;
7 [label="squared_error = -0.0\nsamples = 2\nvalue = 1.4"] ;
5 -> 7 ;
8 [label="FEWS_CS_lag1 <= 2.3\nsquared_error = 0.1\nsamples = 53\nvalue = 1.8"] ;
0 -> 8 [labeldistance=2.5, labelangle=-45, headlabel="False"] ;
9 [label="SPI12 <= 0.9\nsquared_error = 0.1\nsamples = 44\nvalue = 1.7"] ;
8 -> 9 ;
10 [label="MP <= 46.5\nsquared_error = 0.0\nsamples = 41\nvalue = 1.7"] ;
9 -> 10 ;
11 [label="NDVI_crop_roll_mean_12 <= 0.3\nsquared_error = 0.0\nsamples = 34\nvalue = 1.7"] ;
10 -> 11 ;
12 [label="squared_error = 0.0\nsamples = 5\nvalue = 1.9"] ;
11 -> 12 ;
13 [label="squared_error = 0.0\nsamples = 29\nvalue = 1.6"] ;
11 -> 13 ;
14 [label="wd <= 11.2\nsquared_error = 0.1\nsamples = 7\nvalue = 2.0"] ;
10 -> 14 ;
15 [label="squared_error = 0.0\nsamples = 6\nvalue = 1.9"] ;
14 -> 15 ;
16 [label="squared_error = -0.0\nsamples = 1\nvalue = 2.7"] ;
14 -> 16 ;
17 [label="SPI6 <= 2.1\nsquared_error = 0.1\nsamples = 3\nvalue = 1.2"] ;
9 -> 17 ;
18 [label="squared_error = 0.0\nsamples = 2\nvalue = 1.0"] ;
17 -> 18 ;
19 [label="squared_error = -0.0\nsamples = 1\nvalue = 1.6"] ;
17 -> 19 ;
20 [label="NDVI_crop <= 0.4\nsquared_error = 0.2\nsamples = 9\nvalue = 2.3"] ;
8 -> 20 ;
21 [label="SPI3 <= 2.1\nsquared_error = 0.0\nsamples = 7\nvalue = 2.6"] ;
20 -> 21 ;
22 [label="tp <= 5.4\nsquared_error = 0.0\nsamples = 6\nvalue = 2.6"] ;
21 -> 22 ;
23 [label="squared_error = 0.0\nsamples = 1\nvalue = 2.6"] ;
22 -> 23 ;
24 [label="squared_error = 0.0\nsamples = 5\nvalue = 2.6"] ;
22 -> 24 ;
25 [label="squared_error = -0.0\nsamples = 1\nvalue = 2.7"] ;
21 -> 25 ;
26 [label="ds_roll_mean_12 <= 23.8\nsquared_error = 0.0\nsamples = 2\nvalue = 1.5"] ;
20 -> 26 ;
27 [label="squared_error = 0.0\nsamples = 1\nvalue = 1.4"] ;
26 -> 27 ;
28 [label="squared_error = 0.0\nsamples = 1\nvalue = 1.6"] ;
26 -> 28 ;
}