digraph Tree {
node [shape=box, style="rounded", color="black", fontname="helvetica"] ;
edge [fontname="helvetica"] ;
0 [label="FEWS_CS_lag1 <= 1.8\nsquared_error = 0.2\nsamples = 80\nvalue = 1.8"] ;
1 [label="FEWS_CS_lag1 <= 1.2\nsquared_error = 0.1\nsamples = 32\nvalue = 1.4"] ;
0 -> 1 [labeldistance=2.5, labelangle=45, headlabel="True"] ;
2 [label="MPR <= 61.0\nsquared_error = 0.0\nsamples = 9\nvalue = 1.0"] ;
1 -> 2 ;
3 [label="ds_roll_mean_12 <= 14.3\nsquared_error = 0.0\nsamples = 8\nvalue = 1.0"] ;
2 -> 3 ;
4 [label="squared_error = 0.0\nsamples = 5\nvalue = 1.0"] ;
3 -> 4 ;
5 [label="wd <= 7.8\nsquared_error = 0.0\nsamples = 3\nvalue = 1.0"] ;
3 -> 5 ;
6 [label="squared_error = 0.0\nsamples = 1\nvalue = 1.0"] ;
5 -> 6 ;
7 [label="squared_error = 0.0\nsamples = 2\nvalue = 1.0"] ;
5 -> 7 ;
8 [label="squared_error = -0.0\nsamples = 1\nvalue = 1.4"] ;
2 -> 8 ;
9 [label="wd_roll_mean_12 <= 6.9\nsquared_error = 0.1\nsamples = 23\nvalue = 1.5"] ;
1 -> 9 ;
10 [label="ds_roll_mean_12 <= 13.3\nsquared_error = 0.0\nsamples = 7\nvalue = 1.8"] ;
9 -> 10 ;
11 [label="squared_error = 0.0\nsamples = 1\nvalue = 1.7"] ;
10 -> 11 ;
12 [label="NDVI_crop_roll_mean_12 <= 0.4\nsquared_error = 0.0\nsamples = 6\nvalue = 1.8"] ;
10 -> 12 ;
13 [label="squared_error = -0.0\nsamples = 5\nvalue = 1.8"] ;
12 -> 13 ;
14 [label="squared_error = 0.0\nsamples = 1\nvalue = 1.8"] ;
12 -> 14 ;
15 [label="maize_price <= 0.4\nsquared_error = 0.0\nsamples = 16\nvalue = 1.4"] ;
9 -> 15 ;
16 [label="NDVI_range_roll_mean <= 0.2\nsquared_error = 0.0\nsamples = 2\nvalue = 1.0"] ;
15 -> 16 ;
17 [label="squared_error = 0.0\nsamples = 1\nvalue = 1.0"] ;
16 -> 17 ;
18 [label="squared_error = 0.0\nsamples = 1\nvalue = 1.0"] ;
16 -> 18 ;
19 [label="wd_roll_mean_12 <= 7.1\nsquared_error = 0.0\nsamples = 14\nvalue = 1.5"] ;
15 -> 19 ;
20 [label="squared_error = 0.0\nsamples = 1\nvalue = 2.2"] ;
19 -> 20 ;
21 [label="squared_error = 0.0\nsamples = 13\nvalue = 1.4"] ;
19 -> 21 ;
22 [label="wd_roll_mean_12 <= 6.5\nsquared_error = 0.1\nsamples = 48\nvalue = 2.1"] ;
0 -> 22 [labeldistance=2.5, labelangle=-45, headlabel="False"] ;
23 [label="maize_price_roll_mean_12 <= 1.7\nsquared_error = 0.0\nsamples = 9\nvalue = 2.7"] ;
22 -> 23 ;
24 [label="CP <= 6700.0\nsquared_error = 0.0\nsamples = 3\nvalue = 2.5"] ;
23 -> 24 ;
25 [label="squared_error = 0.0\nsamples = 1\nvalue = 2.4"] ;
24 -> 25 ;
26 [label="squared_error = 0.0\nsamples = 2\nvalue = 2.6"] ;
24 -> 26 ;
27 [label="NDVI_roll_mean_12 <= 0.2\nsquared_error = 0.0\nsamples = 6\nvalue = 2.8"] ;
23 -> 27 ;
28 [label="squared_error = 0.0\nsamples = 1\nvalue = 2.8"] ;
27 -> 28 ;
29 [label="FEWS_CS_lag4 <= 2.3\nsquared_error = 0.0\nsamples = 5\nvalue = 2.8"] ;
27 -> 29 ;
30 [label="squared_error = 0.0\nsamples = 2\nvalue = 2.8"] ;
29 -> 30 ;
31 [label="squared_error = 0.0\nsamples = 3\nvalue = 2.8"] ;
29 -> 31 ;
32 [label="ds_roll_mean_12 <= 14.9\nsquared_error = 0.0\nsamples = 39\nvalue = 2.0"] ;
22 -> 32 ;
33 [label="MUAC <= 13.8\nsquared_error = 0.0\nsamples = 14\nvalue = 1.8"] ;
32 -> 33 ;
34 [label="squared_error = 0.0\nsamples = 2\nvalue = 1.6"] ;
33 -> 34 ;
35 [label="maize_price_roll_mean_12 <= 1.0\nsquared_error = 0.0\nsamples = 12\nvalue = 1.9"] ;
33 -> 35 ;
36 [label="squared_error = 0.0\nsamples = 1\nvalue = 2.2"] ;
35 -> 36 ;
37 [label="squared_error = 0.0\nsamples = 11\nvalue = 1.8"] ;
35 -> 37 ;
38 [label="NDVI_crop_roll_mean <= 0.4\nsquared_error = 0.0\nsamples = 25\nvalue = 2.1"] ;
32 -> 38 ;
39 [label="FEWS_CS_lag1 <= 2.3\nsquared_error = 0.0\nsamples = 7\nvalue = 2.3"] ;
38 -> 39 ;
40 [label="squared_error = 0.0\nsamples = 5\nvalue = 2.2"] ;
39 -> 40 ;
41 [label="squared_error = 0.0\nsamples = 2\nvalue = 2.4"] ;
39 -> 41 ;
42 [label="FEWS_CS_lag6 <= 1.8\nsquared_error = 0.0\nsamples = 18\nvalue = 2.0"] ;
38 -> 42 ;
43 [label="squared_error = -0.0\nsamples = 2\nvalue = 2.2"] ;
42 -> 43 ;
44 [label="squared_error = 0.0\nsamples = 16\nvalue = 1.9"] ;
42 -> 44 ;
}