digraph Tree {
node [shape=box, style="rounded", color="black", fontname="helvetica"] ;
edge [fontname="helvetica"] ;
0 [label="FEWS_CS_lag1 <= 2.4\nsquared_error = 0.4\nsamples = 80\nvalue = 2.4"] ;
1 [label="MPR <= 68.6\nsquared_error = 0.1\nsamples = 39\nvalue = 1.9"] ;
0 -> 1 [labeldistance=2.5, labelangle=45, headlabel="True"] ;
2 [label="HDW <= 7.1\nsquared_error = 0.0\nsamples = 31\nvalue = 2.0"] ;
1 -> 2 ;
3 [label="NDVI <= 0.2\nsquared_error = 0.0\nsamples = 30\nvalue = 2.0"] ;
2 -> 3 ;
4 [label="SPI6 <= -0.6\nsquared_error = 0.0\nsamples = 29\nvalue = 2.0"] ;
3 -> 4 ;
5 [label="squared_error = 0.0\nsamples = 1\nvalue = 2.1"] ;
4 -> 5 ;
6 [label="squared_error = 0.0\nsamples = 28\nvalue = 2.0"] ;
4 -> 6 ;
7 [label="squared_error = -0.0\nsamples = 1\nvalue = 2.3"] ;
3 -> 7 ;
8 [label="squared_error = 0.0\nsamples = 1\nvalue = 2.8"] ;
2 -> 8 ;
9 [label="maize_price_roll_mean_12 <= 0.5\nsquared_error = 0.1\nsamples = 8\nvalue = 1.4"] ;
1 -> 9 ;
10 [label="squared_error = 0.0\nsamples = 2\nvalue = 2.0"] ;
9 -> 10 ;
11 [label="squared_error = 0.0\nsamples = 6\nvalue = 1.2"] ;
9 -> 11 ;
12 [label="SPI12 <= -1.2\nsquared_error = 0.2\nsamples = 41\nvalue = 2.9"] ;
0 -> 12 [labeldistance=2.5, labelangle=-45, headlabel="False"] ;
13 [label="NDVI_range_roll_mean <= 0.0\nsquared_error = 0.1\nsamples = 9\nvalue = 3.5"] ;
12 -> 13 ;
14 [label="maize_price_roll_mean_12 <= 0.5\nsquared_error = 0.0\nsamples = 7\nvalue = 3.6"] ;
13 -> 14 ;
15 [label="NDVI_range <= 0.1\nsquared_error = 0.0\nsamples = 4\nvalue = 3.5"] ;
14 -> 15 ;
16 [label="squared_error = -0.0\nsamples = 3\nvalue = 3.5"] ;
15 -> 16 ;
17 [label="squared_error = 0.0\nsamples = 1\nvalue = 3.6"] ;
15 -> 17 ;
18 [label="ds_roll_mean <= 44.5\nsquared_error = 0.0\nsamples = 3\nvalue = 3.8"] ;
14 -> 18 ;
19 [label="squared_error = 0.0\nsamples = 1\nvalue = 3.8"] ;
18 -> 19 ;
20 [label="squared_error = -0.0\nsamples = 2\nvalue = 3.8"] ;
18 -> 20 ;
21 [label="maize_price <= 0.5\nsquared_error = 0.0\nsamples = 2\nvalue = 2.9"] ;
13 -> 21 ;
22 [label="squared_error = 0.0\nsamples = 1\nvalue = 2.8"] ;
21 -> 22 ;
23 [label="squared_error = 0.0\nsamples = 1\nvalue = 2.9"] ;
21 -> 23 ;
24 [label="NDVI_roll_mean <= 0.1\nsquared_error = 0.1\nsamples = 32\nvalue = 2.7"] ;
12 -> 24 ;
25 [label="FEWS_CS_lag1 <= 2.9\nsquared_error = 0.0\nsamples = 23\nvalue = 2.8"] ;
24 -> 25 ;
26 [label="wd_roll_mean_12 <= 2.8\nsquared_error = 0.0\nsamples = 16\nvalue = 2.7"] ;
25 -> 26 ;
27 [label="squared_error = 0.0\nsamples = 8\nvalue = 2.7"] ;
26 -> 27 ;
28 [label="squared_error = 0.0\nsamples = 8\nvalue = 2.8"] ;
26 -> 28 ;
29 [label="NDVI_range_roll_mean <= 0.1\nsquared_error = 0.0\nsamples = 7\nvalue = 3.0"] ;
25 -> 29 ;
30 [label="squared_error = 0.0\nsamples = 6\nvalue = 3.0"] ;
29 -> 30 ;
31 [label="squared_error = 0.0\nsamples = 1\nvalue = 3.6"] ;
29 -> 31 ;
32 [label="maize_price_roll_mean_12 <= 0.5\nsquared_error = 0.0\nsamples = 9\nvalue = 2.4"] ;
24 -> 32 ;
33 [label="NDVI_range_roll_mean <= 0.1\nsquared_error = 0.0\nsamples = 2\nvalue = 2.2"] ;
32 -> 33 ;
34 [label="squared_error = 0.0\nsamples = 1\nvalue = 2.3"] ;
33 -> 34 ;
35 [label="squared_error = 0.0\nsamples = 1\nvalue = 2.0"] ;
33 -> 35 ;
36 [label="SPI24 <= -0.4\nsquared_error = 0.0\nsamples = 7\nvalue = 2.5"] ;
32 -> 36 ;
37 [label="squared_error = 0.0\nsamples = 1\nvalue = 2.9"] ;
36 -> 37 ;
38 [label="squared_error = 0.0\nsamples = 6\nvalue = 2.5"] ;
36 -> 38 ;
}