digraph Tree {
node [shape=box, style="rounded", color="black", fontname="helvetica"] ;
edge [fontname="helvetica"] ;
0 [label="FEWS_CS_lag1 <= 1.5\nsquared_error = 0.3\nsamples = 80\nvalue = 1.9"] ;
1 [label="NDVI_range_roll_mean <= 0.2\nsquared_error = 0.0\nsamples = 13\nvalue = 1.0"] ;
0 -> 1 [labeldistance=2.5, labelangle=45, headlabel="True"] ;
2 [label="ds <= 14.0\nsquared_error = 0.0\nsamples = 2\nvalue = 1.5"] ;
1 -> 2 ;
3 [label="squared_error = 0.0\nsamples = 1\nvalue = 1.6"] ;
2 -> 3 ;
4 [label="squared_error = -0.0\nsamples = 1\nvalue = 1.4"] ;
2 -> 4 ;
5 [label="squared_error = 0.0\nsamples = 11\nvalue = 1.0"] ;
1 -> 5 ;
6 [label="FEWS_CS_lag1 <= 2.8\nsquared_error = 0.2\nsamples = 67\nvalue = 2.0"] ;
0 -> 6 [labeldistance=2.5, labelangle=-45, headlabel="False"] ;
7 [label="LDW <= 2.8\nsquared_error = 0.1\nsamples = 60\nvalue = 1.9"] ;
6 -> 7 ;
8 [label="NDVI <= 0.3\nsquared_error = 0.2\nsamples = 3\nvalue = 1.4"] ;
7 -> 8 ;
9 [label="squared_error = 0.0\nsamples = 2\nvalue = 1.0"] ;
8 -> 9 ;
10 [label="squared_error = 0.0\nsamples = 1\nvalue = 1.9"] ;
8 -> 10 ;
11 [label="FEWS_CS_lag1 <= 1.9\nsquared_error = 0.0\nsamples = 57\nvalue = 2.0"] ;
7 -> 11 ;
12 [label="FEWS_CS_lag4 <= 1.6\nsquared_error = 0.0\nsamples = 26\nvalue = 1.8"] ;
11 -> 12 ;
13 [label="squared_error = 0.0\nsamples = 5\nvalue = 1.6"] ;
12 -> 13 ;
14 [label="squared_error = 0.0\nsamples = 21\nvalue = 1.9"] ;
12 -> 14 ;
15 [label="FEWS_CS_lag1 <= 2.1\nsquared_error = 0.0\nsamples = 31\nvalue = 2.1"] ;
11 -> 15 ;
16 [label="squared_error = 0.0\nsamples = 25\nvalue = 2.0"] ;
15 -> 16 ;
17 [label="squared_error = 0.0\nsamples = 6\nvalue = 2.4"] ;
15 -> 17 ;
18 [label="ds <= 8.1\nsquared_error = 0.2\nsamples = 7\nvalue = 2.8"] ;
6 -> 18 ;
19 [label="squared_error = 0.0\nsamples = 1\nvalue = 2.0"] ;
18 -> 19 ;
20 [label="squared_error = 0.0\nsamples = 6\nvalue = 3.0"] ;
18 -> 20 ;
}