digraph Tree {
node [shape=box, style="rounded", color="black", fontname="helvetica"] ;
edge [fontname="helvetica"] ;
0 [label="FEWS_CS_lag1 <= 1.7\nsquared_error = 0.3\nsamples = 80\nvalue = 1.8"] ;
1 [label="NDVI_range_roll_mean_12 <= 0.2\nsquared_error = 0.1\nsamples = 21\nvalue = 1.1"] ;
0 -> 1 [labeldistance=2.5, labelangle=45, headlabel="True"] ;
2 [label="ds <= 9.8\nsquared_error = 0.0\nsamples = 3\nvalue = 1.6"] ;
1 -> 2 ;
3 [label="squared_error = 0.0\nsamples = 1\nvalue = 1.5"] ;
2 -> 3 ;
4 [label="CP <= 16654.0\nsquared_error = 0.0\nsamples = 2\nvalue = 1.7"] ;
2 -> 4 ;
5 [label="squared_error = 0.0\nsamples = 1\nvalue = 1.8"] ;
4 -> 5 ;
6 [label="squared_error = 0.0\nsamples = 1\nvalue = 1.7"] ;
4 -> 6 ;
7 [label="HDW <= 4.6\nsquared_error = 0.0\nsamples = 18\nvalue = 1.0"] ;
1 -> 7 ;
8 [label="squared_error = 0.0\nsamples = 17\nvalue = 1.0"] ;
7 -> 8 ;
9 [label="squared_error = -0.0\nsamples = 1\nvalue = 1.7"] ;
7 -> 9 ;
10 [label="wd_roll_mean_12 <= 5.8\nsquared_error = 0.1\nsamples = 59\nvalue = 2.1"] ;
0 -> 10 [labeldistance=2.5, labelangle=-45, headlabel="False"] ;
11 [label="FEWS_CS_lag1 <= 2.7\nsquared_error = 0.2\nsamples = 15\nvalue = 2.6"] ;
10 -> 11 ;
12 [label="FEWS_CS_lag6 <= 2.0\nsquared_error = 0.1\nsamples = 9\nvalue = 2.3"] ;
11 -> 12 ;
13 [label="FEWS_CS_lag1 <= 2.3\nsquared_error = 0.0\nsamples = 5\nvalue = 2.4"] ;
12 -> 13 ;
14 [label="squared_error = 0.0\nsamples = 1\nvalue = 2.8"] ;
13 -> 14 ;
15 [label="squared_error = 0.0\nsamples = 4\nvalue = 2.3"] ;
13 -> 15 ;
16 [label="NDVI_range_roll_mean <= 0.2\nsquared_error = 0.0\nsamples = 4\nvalue = 2.0"] ;
12 -> 16 ;
17 [label="squared_error = 0.0\nsamples = 1\nvalue = 2.0"] ;
16 -> 17 ;
18 [label="squared_error = 0.0\nsamples = 3\nvalue = 1.9"] ;
16 -> 18 ;
19 [label="squared_error = 0.0\nsamples = 6\nvalue = 3.0"] ;
11 -> 19 ;
20 [label="NDVI_range_roll_mean_12 <= 0.1\nsquared_error = 0.0\nsamples = 44\nvalue = 2.0"] ;
10 -> 20 ;
21 [label="squared_error = 0.0\nsamples = 1\nvalue = 2.8"] ;
20 -> 21 ;
22 [label="FEWS_CS_lag1 <= 1.9\nsquared_error = 0.0\nsamples = 43\nvalue = 1.9"] ;
20 -> 22 ;
23 [label="wd_roll_mean <= 5.8\nsquared_error = 0.0\nsamples = 11\nvalue = 1.8"] ;
22 -> 23 ;
24 [label="squared_error = 0.0\nsamples = 4\nvalue = 1.7"] ;
23 -> 24 ;
25 [label="squared_error = 0.0\nsamples = 7\nvalue = 1.9"] ;
23 -> 25 ;
26 [label="NDVI_roll_mean <= 0.2\nsquared_error = 0.0\nsamples = 32\nvalue = 2.0"] ;
22 -> 26 ;
27 [label="squared_error = 0.0\nsamples = 3\nvalue = 2.2"] ;
26 -> 27 ;
28 [label="squared_error = 0.0\nsamples = 29\nvalue = 2.0"] ;
26 -> 28 ;
}