digraph Tree {
node [shape=box, style="rounded", color="black", fontname="helvetica"] ;
edge [fontname="helvetica"] ;
0 [label="NDVI_range_roll_mean <= 0.1\nsquared_error = 0.4\nsamples = 21\nvalue = 2.4"] ;
1 [label="IOD_roll_mean <= 0.0\nsquared_error = 0.2\nsamples = 6\nvalue = 3.4"] ;
0 -> 1 [labeldistance=2.5, labelangle=45, headlabel="True"] ;
2 [label="SPI1 <= -0.2\nsquared_error = 0.0\nsamples = 3\nvalue = 3.0"] ;
1 -> 2 ;
3 [label="squared_error = 0.0\nsamples = 2\nvalue = 3.0"] ;
2 -> 3 ;
4 [label="squared_error = 0.0\nsamples = 1\nvalue = 3.0"] ;
2 -> 4 ;
5 [label="NDVI_range_roll_mean_12 <= 0.1\nsquared_error = 0.0\nsamples = 3\nvalue = 3.7"] ;
1 -> 5 ;
6 [label="squared_error = 0.0\nsamples = 1\nvalue = 3.6"] ;
5 -> 6 ;
7 [label="MEI_roll_mean <= -1.2\nsquared_error = 0.0\nsamples = 2\nvalue = 3.9"] ;
5 -> 7 ;
8 [label="squared_error = 0.0\nsamples = 1\nvalue = 3.8"] ;
7 -> 8 ;
9 [label="squared_error = -0.0\nsamples = 1\nvalue = 4.0"] ;
7 -> 9 ;
10 [label="MEI <= -0.9\nsquared_error = 0.1\nsamples = 15\nvalue = 2.2"] ;
0 -> 10 [labeldistance=2.5, labelangle=-45, headlabel="False"] ;
11 [label="NDVI_range_roll_mean <= 0.1\nsquared_error = 0.0\nsamples = 2\nvalue = 2.9"] ;
10 -> 11 ;
12 [label="squared_error = 0.0\nsamples = 1\nvalue = 3.0"] ;
11 -> 12 ;
13 [label="squared_error = 0.0\nsamples = 1\nvalue = 2.6"] ;
11 -> 13 ;
14 [label="MUAC <= 20.4\nsquared_error = 0.0\nsamples = 13\nvalue = 2.1"] ;
10 -> 14 ;
15 [label="LDW <= 11.1\nsquared_error = 0.0\nsamples = 11\nvalue = 2.0"] ;
14 -> 15 ;
16 [label="NDVI_range_roll_mean_12 <= 0.1\nsquared_error = 0.0\nsamples = 10\nvalue = 2.0"] ;
15 -> 16 ;
17 [label="squared_error = 0.0\nsamples = 2\nvalue = 1.9"] ;
16 -> 17 ;
18 [label="squared_error = 0.0\nsamples = 8\nvalue = 2.0"] ;
16 -> 18 ;
19 [label="squared_error = -0.0\nsamples = 1\nvalue = 2.2"] ;
15 -> 19 ;
20 [label="IOD_roll_mean_12 <= -0.0\nsquared_error = 0.0\nsamples = 2\nvalue = 2.6"] ;
14 -> 20 ;
21 [label="squared_error = 0.0\nsamples = 1\nvalue = 2.6"] ;
20 -> 21 ;
22 [label="squared_error = 0.0\nsamples = 1\nvalue = 2.6"] ;
20 -> 22 ;
}